digraph Tree {
node [shape=box, style="filled", color="black"] ;
0 [label="Sex_male <= 0.5\ngini = 0.473\nsamples = 891\nvalue = [549, 342]", fillcolor="#f5cfb4"] ;
1 [label="Pclass <= 2.5\ngini = 0.383\nsamples = 314\nvalue = [81, 233]", fillcolor="#7ebfee"] ;
0 -> 1 [labeldistance=2.5, labelangle=45, headlabel="True"] ;
2 [label="Fare <= 28.856\ngini = 0.1\nsamples = 170\nvalue = [9, 161]", fillcolor="#44a2e6"] ;
1 -> 2 ;
3 [label="Age <= 37.0\ngini = 0.18\nsamples = 70\nvalue = [7, 63]", fillcolor="#4fa8e8"] ;
2 -> 3 ;
4 [label="Age <= 27.5\ngini = 0.113\nsamples = 50\nvalue = [3, 47]", fillcolor="#46a3e7"] ;
3 -> 4 ;
5 [label="Age <= 23.5\ngini = 0.204\nsamples = 26\nvalue = [3, 23]", fillcolor="#53aae8"] ;
4 -> 5 ;
6 [label="gini = 0.0\nsamples = 15\nvalue = [0, 15]", fillcolor="#399de5"] ;
5 -> 6 ;
7 [label="gini = 0.397\nsamples = 11\nvalue = [3, 8]", fillcolor="#83c2ef"] ;
5 -> 7 ;
8 [label="gini = 0.0\nsamples = 24\nvalue = [0, 24]", fillcolor="#399de5"] ;
4 -> 8 ;
9 [label="Age <= 44.5\ngini = 0.32\nsamples = 20\nvalue = [4, 16]", fillcolor="#6ab6ec"] ;
3 -> 9 ;
10 [label="gini = 0.375\nsamples = 8\nvalue = [2, 6]", fillcolor="#7bbeee"] ;
9 -> 10 ;
11 [label="gini = 0.278\nsamples = 12\nvalue = [2, 10]", fillcolor="#61b1ea"] ;
9 -> 11 ;
12 [label="Family_size <= 2.5\ngini = 0.039\nsamples = 100\nvalue = [2, 98]", fillcolor="#3d9fe6"] ;
2 -> 12 ;
13 [label="gini = 0.0\nsamples = 87\nvalue = [0, 87]", fillcolor="#399de5"] ;
12 -> 13 ;
14 [label="gini = 0.26\nsamples = 13\nvalue = [2, 11]", fillcolor="#5dafea"] ;
12 -> 14 ;
15 [label="Fare <= 23.35\ngini = 0.5\nsamples = 144\nvalue = [72, 72]", fillcolor="#ffffff"] ;
1 -> 15 ;
16 [label="Embarked_S <= 0.5\ngini = 0.484\nsamples = 117\nvalue = [48, 69]", fillcolor="#c3e1f7"] ;
15 -> 16 ;
17 [label="Fare <= 15.621\ngini = 0.417\nsamples = 54\nvalue = [16, 38]", fillcolor="#8cc6f0"] ;
16 -> 17 ;
18 [label="Fare <= 13.935\ngini = 0.454\nsamples = 46\nvalue = [16, 30]", fillcolor="#a3d1f3"] ;
17 -> 18 ;
19 [label="Fare <= 7.769\ngini = 0.342\nsamples = 32\nvalue = [7, 25]", fillcolor="#70b8ec"] ;
18 -> 19 ;
20 [label="gini = 0.397\nsamples = 22\nvalue = [6, 16]", fillcolor="#83c2ef"] ;
19 -> 20 ;
21 [label="gini = 0.18\nsamples = 10\nvalue = [1, 9]", fillcolor="#4fa8e8"] ;
19 -> 21 ;
22 [label="gini = 0.459\nsamples = 14\nvalue = [9, 5]", fillcolor="#f3c7a7"] ;
18 -> 22 ;
23 [label="gini = 0.0\nsamples = 8\nvalue = [0, 8]", fillcolor="#399de5"] ;
17 -> 23 ;
24 [label="Fare <= 10.825\ngini = 0.5\nsamples = 63\nvalue = [32, 31]", fillcolor="#fefbf9"] ;
16 -> 24 ;
25 [label="Age <= 27.5\ngini = 0.482\nsamples = 37\nvalue = [22, 15]", fillcolor="#f7d7c0"] ;
24 -> 25 ;
26 [label="Fare <= 8.294\ngini = 0.499\nsamples = 25\nvalue = [12, 13]", fillcolor="#f0f7fd"] ;
25 -> 26 ;
27 [label="gini = 0.43\nsamples = 16\nvalue = [5, 11]", fillcolor="#93caf1"] ;
26 -> 27 ;
28 [label="gini = 0.346\nsamples = 9\nvalue = [7, 2]", fillcolor="#eca572"] ;
26 -> 28 ;
29 [label="gini = 0.278\nsamples = 12\nvalue = [10, 2]", fillcolor="#ea9a61"] ;
25 -> 29 ;
30 [label="Fare <= 17.6\ngini = 0.473\nsamples = 26\nvalue = [10, 16]", fillcolor="#b5daf5"] ;
24 -> 30 ;
31 [label="Fare <= 15.175\ngini = 0.305\nsamples = 16\nvalue = [3, 13]", fillcolor="#67b4eb"] ;
30 -> 31 ;
32 [label="gini = 0.375\nsamples = 8\nvalue = [2, 6]", fillcolor="#7bbeee"] ;
31 -> 32 ;
33 [label="gini = 0.219\nsamples = 8\nvalue = [1, 7]", fillcolor="#55abe9"] ;
31 -> 33 ;
34 [label="gini = 0.42\nsamples = 10\nvalue = [7, 3]", fillcolor="#f0b78e"] ;
30 -> 34 ;
35 [label="Fare <= 32.881\ngini = 0.198\nsamples = 27\nvalue = [24, 3]", fillcolor="#e89152"] ;
15 -> 35 ;
36 [label="SibSp <= 2.0\ngini = 0.278\nsamples = 18\nvalue = [15, 3]", fillcolor="#ea9a61"] ;
35 -> 36 ;
37 [label="gini = 0.375\nsamples = 8\nvalue = [6, 2]", fillcolor="#eeab7b"] ;
36 -> 37 ;
38 [label="gini = 0.18\nsamples = 10\nvalue = [9, 1]", fillcolor="#e88f4f"] ;
36 -> 38 ;
39 [label="gini = 0.0\nsamples = 9\nvalue = [9, 0]", fillcolor="#e58139"] ;
35 -> 39 ;
40 [label="Age <= 6.5\ngini = 0.306\nsamples = 577\nvalue = [468, 109]", fillcolor="#eb9e67"] ;
0 -> 40 [labeldistance=2.5, labelangle=-45, headlabel="False"] ;
41 [label="SibSp <= 2.5\ngini = 0.444\nsamples = 24\nvalue = [8, 16]", fillcolor="#9ccef2"] ;
40 -> 41 ;
42 [label="gini = 0.0\nsamples = 15\nvalue = [0, 15]", fillcolor="#399de5"] ;
41 -> 42 ;
43 [label="gini = 0.198\nsamples = 9\nvalue = [8, 1]", fillcolor="#e89152"] ;
41 -> 43 ;
44 [label="Pclass <= 1.5\ngini = 0.28\nsamples = 553\nvalue = [460, 93]", fillcolor="#ea9a61"] ;
40 -> 44 ;
45 [label="Fare <= 26.144\ngini = 0.46\nsamples = 120\nvalue = [77, 43]", fillcolor="#f4c7a8"] ;
44 -> 45 ;
46 [label="gini = 0.0\nsamples = 10\nvalue = [10, 0]", fillcolor="#e58139"] ;
45 -> 46 ;
47 [label="Age <= 53.0\ngini = 0.476\nsamples = 110\nvalue = [67, 43]", fillcolor="#f6d2b8"] ;
45 -> 47 ;
48 [label="Fare <= 27.135\ngini = 0.495\nsamples = 89\nvalue = [49, 40]", fillcolor="#fae8db"] ;
47 -> 48 ;
49 [label="gini = 0.26\nsamples = 13\nvalue = [2, 11]", fillcolor="#5dafea"] ;
48 -> 49 ;
50 [label="Age <= 27.5\ngini = 0.472\nsamples = 76\nvalue = [47, 29]", fillcolor="#f5cfb3"] ;
48 -> 50 ;
51 [label="gini = 0.498\nsamples = 17\nvalue = [8, 9]", fillcolor="#e9f4fc"] ;
50 -> 51 ;
52 [label="gini = 0.448\nsamples = 59\nvalue = [39, 20]", fillcolor="#f2c29f"] ;
50 -> 52 ;
53 [label="Embarked_S <= 0.5\ngini = 0.245\nsamples = 21\nvalue = [18, 3]", fillcolor="#e9965a"] ;
47 -> 53 ;
54 [label="gini = 0.375\nsamples = 8\nvalue = [6, 2]", fillcolor="#eeab7b"] ;
53 -> 54 ;
55 [label="gini = 0.142\nsamples = 13\nvalue = [12, 1]", fillcolor="#e78c49"] ;
53 -> 55 ;
56 [label="Fare <= 51.698\ngini = 0.204\nsamples = 433\nvalue = [383, 50]", fillcolor="#e89153"] ;
44 -> 56 ;
57 [label="Age <= 13.0\ngini = 0.193\nsamples = 417\nvalue = [372, 45]", fillcolor="#e89051"] ;
56 -> 57 ;
58 [label="gini = 0.444\nsamples = 12\nvalue = [8, 4]", fillcolor="#f2c09c"] ;
57 -> 58 ;
59 [label="Age <= 32.25\ngini = 0.182\nsamples = 405\nvalue = [364, 41]", fillcolor="#e88f4f"] ;
57 -> 59 ;
60 [label="Age <= 30.75\ngini = 0.206\nsamples = 300\nvalue = [265, 35]", fillcolor="#e89253"] ;
59 -> 60 ;
61 [label="gini = 0.185\nsamples = 282\nvalue = [253, 29]", fillcolor="#e88f50"] ;
60 -> 61 ;
62 [label="gini = 0.444\nsamples = 18\nvalue = [12, 6]", fillcolor="#f2c09c"] ;
60 -> 62 ;
63 [label="Fare <= 7.91\ngini = 0.108\nsamples = 105\nvalue = [99, 6]", fillcolor="#e78945"] ;
59 -> 63 ;
64 [label="gini = 0.0\nsamples = 32\nvalue = [32, 0]", fillcolor="#e58139"] ;
63 -> 64 ;
65 [label="gini = 0.151\nsamples = 73\nvalue = [67, 6]", fillcolor="#e78c4b"] ;
63 -> 65 ;
66 [label="gini = 0.43\nsamples = 16\nvalue = [11, 5]", fillcolor="#f1ba93"] ;
56 -> 66 ;
}